50 50
4.4367 -4.4615 1.0661 0.7722 3.6149 0.2353 -0.6984 -1.5861 -0.4680 1.6789 2.9654 1.8336 -1.7628 -0.4824 4.2685 -1.7418 0.8336 0.8611 0.1706 -4.0018 -0.1360 0.8005 -0.4706 2.2643 -0.1186 1.1030 0.2966 1.5031 0.8668 2.9448 0.6071 -0.7233 -2.3799 0.2200 2.2674 2.9122 -0.1801 2.3788 -4.6882 1.0144 -0.6039 1.2054 0.8736 1.7398 -1.8139 -0.6754 -0.3624 -3.1253 -0.5147 -0.6031 11
-4.4615 5.4914 -1.3014 -0.7963 -3.9893 -0.2175 0.7583 1.7477 0.5379 -1.9363 -3.3024 -2.1398 1.8651 0.4585 -4.8177 1.9685 -0.9459 -0.9782 -0.1861 4.4472 0.1690 -0.8267 0.5351 -2.6185 0.1681 -1.2149 -0.3615 -1.6736 -1.0445 -3.3023 -0.6565 0.8258 2.6613 -0.2644 -2.5447 -3.2129 0.1292 -2.7918 5.2974 -1.2834 0.5630 -1.3818 -0.9346 -1.9858 2.0120 0.7924 0.3411 3.5546 0.4998 0.5850 32
1.0661 -1.3014 0.8078 0.2378 1.0382 0.0488 -0.2371 -0.4702 -0.1380 0.5640 0.8139 0.5460 -0.4899 -0.1178 1.2196 -0.4783 0.2545 0.2078 0.0801 -1.1908 -0.0374 0.2035 -0.1249 0.6400 -0.0391 0.2567 0.1518 0.5153 0.1974 0.8925 0.1360 -0.2259 -0.6926 0.1210 0.6143 0.8002 -0.1187 0.6768 -1.3484 0.2300 -0.1818 0.3868 0.1689 0.4837 -0.4645 -0.2751 -0.0827 -0.9572 -0.1690 -0.1316 34
0.7722 -0.7963 0.2378 0.6144 0.7144 -0.0055 -0.1582 -0.2928 -0.0905 0.2904 0.5034 0.2867 -0.3162 -0.0635 0.8078 -0.3380 0.1178 0.1661 0.0053 -0.7044 -0.0063 0.0773 -0.1166 0.4111 -0.0246 0.2158 0.0824 0.1947 0.1997 0.5746 0.1248 -0.2031 -0.4237 0.0203 0.4241 0.4878 -0.0714 0.4170 -0.8844 0.2237 -0.1125 0.2486 0.1561 0.3472 -0.3703 -0.0559 -0.1356 -0.6167 -0.1647 -0.0935 96
3.6149 -3.9893 1.0382 0.7144 3.6087 0.2134 -0.6389 -1.3784 -0.4295 1.4693 2.6139 1.5932 -1.5745 -0.4448 3.8144 -1.5531 0.8598 0.6974 0.0609 -3.5773 -0.0774 0.7201 -0.4436 2.0151 -0.1150 0.9708 0.2391 1.3695 0.7655 2.6095 0.4925 -0.6631 -2.1943 0.1833 2.0273 2.5720 -0.1274 2.1856 -4.1457 1.0017 -0.4430 1.0523 0.6535 1.5415 -1.5980 -0.6920 -0.2685 -2.8187 -0.4301 -0.4861 43
0.2353 -0.2175 0.0488 -0.0055 0.2134 0.6115 -0.0505 -0.0642 -0.0790 0.1177 0.1064 0.0960 -0.0649 -0.0697 0.2303 -0.1222 0.0295 0.0061 -0.0182 -0.2189 -0.0612 0.0181 -0.0333 0.0986 -0.0924 0.0696 0.0400 0.1574 0.0548 0.1165 0.0217 -0.0139 -0.1768 -0.0189 0.1274 0.1172 -0.0287 0.0973 -0.2422 -0.0295 -0.0412 0.0373 0.0315 0.0984 -0.1038 -0.0910 -0.0058 -0.1767 0.0429 -0.0993 18
-0.6984 0.7583 -0.2371 -0.1582 -0.6389 -0.0505 0.5557 0.3077 0.0160 -0.3016 -0.5484 -0.3205 0.3284 0.0054 -0.7598 0.3282 -0.1838 -0.1542 -0.0622 0.6601 0.0291 -0.1517 0.0906 -0.3539 0.1052 -0.1978 -0.1076 -0.2658 -0.1979 -0.5016 -0.1074 0.1386 0.4316 -0.0773 -0.4192 -0.4698 0.0369 -0.4200 0.8134 -0.2177 0.0992 -0.2070 -0.1330 -0.2670 0.3147 0.1318 0.0575 0.5627 0.0802 0.0384 80
-1.5861 1.7477 -0.4702 -0.2928 -1.3784 -0.0642 0.3077 1.1256 0.2205 -0.6747 -1.2736 -0.7123 0.7276 0.2218 -1.7330 0.6591 -0.3960 -0.3665 -0.0450 1.5478 -0.0076 -0.2821 0.2135 -0.9683 -0.0263 -0.4476 -0.1298 -0.5946 -0.3142 -1.1905 -0.2444 0.2381 0.9573 -0.0628 -0.9445 -1.1430 0.0128 -0.9203 1.8623 -0.4883 0.2389 -0.5634 -0.3256 -0.6978 0.6856 0.3184 0.0851 1.2199 0.2287 0.1844 87
-0.4680 0.5379 -0.1380 -0.0905 -0.4295 -0.0790 0.0160 0.2205 0.6002 -0.1750 -0.3927 -0.2053 0.2174 0.0184 -0.4728 0.1623 -0.0201 -0.1492 -0.0001 0.4845 -0.0131 -0.0899 0.0397 -0.2273 -0.0113 -0.1949 -0.0978 -0.2224 -0.0982 -0.3604 -0.0607 0.0271 0.2057 -0.0162 -0.2003 -0.3355 -0.0014 -0.3399 0.5632 -0.1197 0.0333 -0.1706 -0.1850 -0.2391 0.2056 0.0961 0.0245 0.3788 -0.0024 0.0925 61
1.6789 -1.9363 0.5640 0.2904 1.4693 0.1177 -0.3016 -0.6747 -0.1750 1.2471 1.2494 0.8076 -0.7653 -0.2079 1.7522 -0.7386 0.3245 0.2607 0.0793 -1.6825 -0.0583 0.2169 -0.1956 1.0236 -0.0615 0.4246 0.1110 0.6476 0.3617 1.2371 0.1979 -0.3132 -1.0316 0.1573 0.9332 1.2254 -0.1233 0.9135 -2.0165 0.5499 -0.2261 0.4315 0.4177 0.7414 -0.7338 -0.2253 -0.1200 -1.4226 -0.2416 -0.2243 41
2.9654 -3.3024 0.8139 0.5034 2.6139 0.1064 -0.5484 -1.2736 -0.3927 1.2494 2.8167 1.4040 -1.2954 -0.3135 3.1917 -1.2893 0.6266 0.6943 0.0800 -2.9907 -0.0832 0.5946 -0.3256 1.6993 -0.1631 0.8020 0.2230 1.2066 0.6892 2.1617 0.4620 -0.5332 -1.7126 0.1553 1.7350 2.1786 -0.1948 1.8416 -3.5767 0.8156 -0.3812 0.8925 0.6633 1.2884 -1.4071 -0.5335 -0.2591 -2.4365 -0.3730 -0.4438 91
1.8336 -2.1398 0.5460 0.2867 1.5932 0.0960 -0.3205 -0.7123 -0.2053 0.8076 1.4040 1.3438 -0.8637 -0.2374 1.9512 -0.7814 0.4141 0.3961 0.0827 -1.8580 -0.0572 0.4266 -0.2837 1.0560 -0.0202 0.5552 0.1253 0.6276 0.4150 1.4707 0.2717 -0.3645 -1.1553 0.1547 0.9741 1.3106 -0.0719 1.1116 -2.1870 0.5297 -0.2500 0.5574 0.4051 0.8233 -0.8588 -0.3423 -0.1682 -1.4821 -0.2837 -0.2979 3
-1.7628 1.8651 -0.4899 -0.3162 -1.5745 -0.0649 0.3284 0.7276 0.2174 -0.7653 -1.2954 -0.8637 1.2627 0.2484 -1.7586 0.7080 -0.4033 -0.3207 -0.0773 1.6659 0.0566 -0.2477 0.1829 -1.0606 0.0131 -0.5513 -0.1455 -0.7315 -0.3760 -1.2981 -0.2848 0.3207 1.0699 -0.1396 -1.0138 -1.2091 0.0626 -1.0602 2.0135 -0.4964 0.2353 -0.4945 -0.3991 -0.8193 0.8328 0.2973 0.1547 1.3701 0.2007 0.2452 51
-0.4824 0.4585 -0.1178 -0.0635 -0.4448 -0.0697 0.0054 0.2218 0.0184 -0.2079 -0.3135 -0.2374 0.2484 0.5601 -0.5049 0.2189 -0.0926 -0.1042 -0.0107 0.4073 -0.0467 -0.1080 0.0589 -0.2658 0.0778 -0.2009 -0.0429 -0.1438 -0.0688 -0.3917 -0.0649 0.1124 0.2393 -0.0561 -0.3215 -0.2544 0.0347 -0.2496 0.5846 -0.1960 0.0947 -0.1743 -0.1177 -0.2404 0.2068 0.0174 -0.0014 0.3707 -0.0210 0.1392 76
4.2685 -4.8177 1.2196 0.8078 3.8144 0.2303 -0.7598 -1.7330 -0.4728 1.7522 3.1917 1.9512 -1.7586 -0.5049 4.9272 -1.9011 0.9544 0.9357 0.1377 -4.2788 -0.1314 0.7245 -0.5144 2.4409 -0.1264 1.1856 0.3233 1.6356 0.9029 3.1361 0.6220 -0.7698 -2.5897 0.2700 2.3427 3.1026 -0.2090 2.5559 -4.9978 1.1663 -0.6121 1.2878 0.8739 1.8602 -1.9258 -0.7036 -0.3510 -3.3412 -0.4694 -0.5876 98
-1.7418 1.9685 -0.4783 -0.3380 -1.5531 -0.1222 0.3282 0.6591 0.1623 -0.7386 -1.2893 -0.7814 0.7080 0.2189 -1.9011 1.2592 -0.4085 -0.3581 -0.0461 1.7036 0.0580 -0.3064 0.1952 -0.9995 0.0469 -0.4775 -0.0505 -0.6864 -0.4069 -1.2795 -0.2430 0.3262 0.9807 -0.0341 -0.9475 -1.3099 0.1348 -1.1112 1.9769 -0.4573 0.1157 -0.5270 -0.4353 -0.7637 0.7695 0.3024 0.1594 1.3772 0.2173 0.1947 88
0.8336 -0.9459 0.2545 0.1178 0.8598 0.0295 -0.1838 -0.3960 -0.0201 0.3245 0.6266 0.4141 -0.4033 -0.0926 0.9544 -0.4085 0.7387 0.1450 -0.0189 -0.9240 -0.0417 0.1480 -0.0947 0.5061 -0.0763 0.2524 0.0569 0.3645 0.2015 0.6797 0.1683 -0.1541 -0.4839 0.0498 0.5368 0.6788 -0.0638 0.4828 -1.0971 0.2505 -0.1408 0.3017 0.1375 0.4008 -0.4232 -0.2308 -0.1915 -0.6789 -0.1208 -0.1478 76
0.8611 -0.9782 0.2078 0.1661 0.6974 0.0061 -0.1542 -0.3665 -0.1492 0.2607 0.6943 0.3961 -0.3207 -0.1042 0.9357 -0.3581 0.1450 0.6881 -0.0739 -0.8628 -0.0633 0.1173 -0.1399 0.4926 -0.0287 0.2198 0.0692 0.3598 0.2129 0.6753 0.1110 -0.1791 -0.5045 0.0665 0.5216 0.5796 -0.0743 0.4918 -0.9623 0.2336 -0.0882 0.3035 0.1861 0.4271 -0.3692 -0.1089 -0.1700 -0.6438 -0.1551 -0.1630 84
0.1706 -0.1861 0.0801 0.0053 0.0609 -0.0182 -0.0622 -0.0450 -0.0001 0.0793 0.0800 0.0827 -0.0773 -0.0107 0.1377 -0.0461 -0.0189 -0.0739 0.5039 -0.0594 -0.0302 -0.0222 -0.0407 0.0777 0.0352 0.0323 -0.0344 0.0523 -0.0722 0.0539 0.0417 -0.0221 -0.0269 -0.0227 0.0543 0.0457 0.0012 0.0755 -0.1467 0.0139 -0.0109 0.0676 0.0200 0.0147 -0.0310 -0.0005 -0.0351 -0.1509 -0.0191 -0.0120 24
-4.0018 4.4472 -1.1908 -0.7044 -3.5773 -0.2189 0.6601 1.5478 0.4845 -1.6825 -2.9907 -1.8580 1.6659 0.4073 -4.2788 1.7036 -0.9240 -0.8628 -0.0594 4.5571 0.1632 -0.7421 0.4545 -2.2661 0.1619 -1.0987 -0.3193 -1.5552 -0.8715 -3.0273 -0.6303 0.7524 2.3243 -0.2939 -2.2499 -2.9293 0.1415 -2.4247 4.7593 -1.1034 0.5131 -1.2266 -0.8442 -1.7190 1.7676 0.6289 0.2217 3.2451 0.4565 0.6006 37
-0.1360 0.1690 -0.0374 -0.0063 -0.0774 -0.0612 0.0291 -0.0076 -0.0131 -0.0583 -0.0832 -0.0572 0.0566 -0.0467 -0.1314 0.0580 -0.0417 -0.0633 -0.0302 0.1632 0.5274 -0.0392 0.0318 -0.0729 0.0031 -0.0292 -0.0372 -0.0911 -0.0091 -0.1086 -0.0302 -0.0278 0.1223 -0.0347 -0.1301 -0.1444 0.0133 -0.0872 0.1889 -0.0596 0.0565 -0.0610 -0.0429 -0.1673 0.0779 -0.0036 -0.0132 0.1143 -0.0194 -0.0071 74
0.8005 -0.8267 0.2035 0.0773 0.7201 0.0181 -0.1517 -0.2821 -0.0899 0.2169 0.5946 0.4266 -0.2477 -0.1080 0.7245 -0.3064 0.1480 0.1173 -0.0222 -0.7421 -0.0392 0.5543 -0.1556 0.4184 -0.0711 0.1784 0.1096 0.2794 0.1335 0.5059 0.1597 -0.1736 -0.4540 -0.0114 0.4461 0.5307 -0.0149 0.3910 -0.8916 0.1849 -0.1016 0.2388 0.0980 0.3006 -0.3008 -0.1590 0.0104 -0.6025 -0.0853 -0.1028 44
-0.4706 0.5351 -0.1249 -0.1166 -0.4436 -0.0333 0.0906 0.2135 0.0397 -0.1956 -0.3256 -0.2837 0.1829 0.0589 -0.5144 0.1952 -0.0947 -0.1399 -0.0407 0.4545 0.0318 -0.1556 0.5381 -0.2947 0.0280 -0.1108 -0.0031 -0.1608 -0.0768 -0.4651 -0.0563 -0.0028 0.2295 -0.0215 -0.2771 -0.3310 -0.0671 -0.2729 0.5384 -0.0949 0.0839 -0.1465 -0.1097 -0.1883 0.2386 0.0459 0.0971 0.4016 -0.0077 0.0481 79
2.2643 -2.6185 0.6400 0.4111 2.0151 0.0986 -0.3539 -0.9683 -0.2273 1.0236 1.6993 1.0560 -1.0606 -0.2658 2.4409 -0.9995 0.5061 0.4926 0.0777 -2.2661 -0.0729 0.4184 -0.2947 1.9216 -0.1037 0.5956 0.2413 0.9081 0.5225 1.6973 0.3523 -0.3609 -1.4174 0.1039 1.3038 1.6292 -0.0964 1.4246 -2.7942 0.6636 -0.2588 0.6827 0.4554 0.9998 -1.0123 -0.4149 -0.2238 -1.9271 -0.2503 -0.3470 91
-0.1186 0.1681 -0.0391 -0.0246 -0.1150 -0.0924 0.1052 -0.0263 -0.0113 -0.0615 -0.1631 -0.0202 0.0131 0.0778 -0.1264 0.0469 -0.0763 -0.0287 0.0352 0.1619 0.0031 -0.0711 0.0280 -0.1037 0.5922 -0.0739 0.0261 -0.1722 -0.1103 -0.1501 -0.0494 -0.0288 0.0932 0.0613 -0.1210 -0.1120 -0.0071 -0.1159 0.2040 -0.0653 -0.0195 -0.0332 -0.0137 -0.0335 0.0409 0.0102 0.0141 0.1923 -0.0476 -0.0213 76
1.1030 -1.2149 0.2567 0.2158 0.9708 0.0696 -0.1978 -0.4476 -0.1949 0.4246 0.8020 0.5552 -0.5513 -0.2009 1.1856 -0.4775 0.2524 0.2198 0.0323 -1.0987 -0.0292 0.1784 -0.1108 0.5956 -0.0739 0.8907 0.1138 0.4254 0.2823 0.8185 0.1322 -0.2217 -0.6822 0.0368 0.6394 0.8091 0.0051 0.6314 -1.3638 0.2927 -0.1847 0.3346 0.2050 0.5508 -0.4394 -0.1506 -0.1622 -0.9206 -0.1723 -0.1603 22
0.2966 -0.3615 0.1518 0.0824 0.2391 0.0400 -0.1076 -0.1298 -0.0978 0.1110 0.2230 0.1253 -0.1455 -0.0429 0.3233 -0.0505 0.0569 0.0692 -0.0344 -0.3193 -0.0372 0.1096 -0.0031 0.2413 0.0261 0.1138 0.5573 0.0754 0.0250 0.2189 0.0510 -0.0412 -0.1801 -0.0739 0.2179 0.1744 -0.0242 0.2166 -0.4319 0.1487 -0.0726 0.1063 0.0619 0.1750 -0.2028 -0.1677 -0.0313 -0.3501 0.0216 -0.0780 78
1.5031 -1.6736 0.5153 0.1947 1.3695 0.1574 -0.2658 -0.5946 -0.2224 0.6476 1.2066 0.6276 -0.7315 -0.1438 1.6356 -0.6864 0.3645 0.3598 0.0523 -1.5552 -0.0911 0.2794 -0.1608 0.9081 -0.1722 0.4254 0.0754 1.1056 0.3363 1.1059 0.1645 -0.3213 -0.9046 0.0380 0.8608 1.1189 -0.0792 0.9416 -1.8905 0.4371 -0.2114 0.4700 0.2954 0.6336 -0.7384 -0.2259 -0.1287 -1.1986 -0.1733 -0.2291 38
0.8668 -1.0445 0.1974 0.1997 0.7655 0.0548 -0.1979 -0.3142 -0.0982 0.3617 0.6892 0.4150 -0.3760 -0.0688 0.9029 -0.4069 0.2015 0.2129 -0.0722 -0.8715 -0.0091 0.1335 -0.0768 0.5225 -0.1103 0.2823 0.0250 0.3363 0.5958 0.6271 0.1350 -0.1556 -0.5697 -0.0203 0.4885 0.6118 -0.0080 0.5502 -1.0793 0.2500 -0.1654 0.2566 0.2055 0.3829 -0.4214 -0.1378 -0.0595 -0.6626 -0.1150 -0.1880 50
2.9448 -3.3023 0.8925 0.5746 2.6095 0.1165 -0.5016 -1.1905 -0.3604 1.2371 2.1617 1.4707 -1.2981 -0.3917 3.1361 -1.2795 0.6797 0.6753 0.0539 -3.0273 -0.1086 0.5059 -0.4651 1.6973 -0.1501 0.8185 0.2189 1.1059 0.6271 2.7586 0.3675 -0.5816 -1.8573 0.1497 1.6707 2.1824 -0.1306 1.8887 -3.4013 0.8479 -0.4523 0.9010 0.6562 1.3738 -1.3290 -0.5080 -0.2465 -2.3834 -0.3478 -0.4556 1
0.6071 -0.6565 0.1360 0.1248 0.4925 0.0217 -0.1074 -0.2444 -0.0607 0.1979 0.4620 0.2717 -0.2848 -0.0649 0.6220 -0.2430 0.1683 0.1110 0.0417 -0.6303 -0.0302 0.1597 -0.0563 0.3523 -0.0494 0.1322 0.0510 0.1645 0.1350 0.3675 0.6505 -0.0855 -0.3835 0.0582 0.3364 0.3776 -0.0242 0.3747 -0.6923 0.1508 -0.1812 0.1507 0.1314 0.2037 -0.1861 -0.1466 -0.0753 -0.5261 -0.0820 -0.0252 22
-0.7233 0.8258 -0.2259 -0.2031 -0.6631 -0.0139 0.1386 0.2381 0.0271 -0.3132 -0.5332 -0.3645 0.3207 0.1124 -0.7698 0.3262 -0.1541 -0.1791 -0.0221 0.7524 -0.0278 -0.1736 -0.0028 -0.3609 -0.0288 -0.2217 -0.0412 -0.3213 -0.1556 -0.5816 -0.0855 0.6238 0.4752 -0.1364 -0.3935 -0.5287 0.0694 -0.4097 0.8696 -0.2551 0.0694 -0.2764 -0.0905 -0.3565 0.3362 0.1081 0.0678 0.5495 0.0963 0.1737 10
-2.3799 2.6613 -0.6926 -0.4237 -2.1943 -0.1768 0.4316 0.9573 0.2057 -1.0316 -1.7126 -1.1553 1.0699 0.2393 -2.5897 0.9807 -0.4839 -0.5045 -0.0269 2.3243 0.1223 -0.4540 0.2295 -1.4174 0.0932 -0.6822 -0.1801 -0.9046 -0.5697 -1.8573 -0.3835 0.4752 1.9831 -0.1577 -1.4546 -1.7846 0.0535 -1.4723 2.8168 -0.5935 0.3610 -0.7421 -0.4724 -1.1204 1.0324 0.4550 0.2151 1.8968 0.2890 0.2856 65
0.2200 -0.2644 0.1210 0.0203 0.1833 -0.0189 -0.0773 -0.0628 -0.0162 0.1573 0.1553 0.1547 -0.1396 -0.0561 0.2700 -0.0341 0.0498 0.0665 -0.0227 -0.2939 -0.0347 -0.0114 -0.0215 0.1039 0.0613 0.0368 -0.0739 0.0380 -0.0203 0.1497 0.0582 -0.1364 -0.1577 0.5340 0.0912 0.2201 0.0425 0.1589 -0.3378 0.0146 -0.0082 -0.0365 0.0957 0.0583 -0.1264 -0.0559 0.0099 -0.2153 0.0433 0.0105 39
2.2674 -2.5447 0.6143 0.4241 2.0273 0.1274 -0.4192 -0.9445 -0.2003 0.9332 1.7350 0.9741 -1.0138 -0.3215 2.3427 -0.9475 0.5368 0.5216 0.0543 -2.2499 -0.1301 0.4461 -0.2771 1.3038 -0.1210 0.6394 0.2179 0.8608 0.4885 1.6707 0.3364 -0.3935 -1.4546 0.0912 1.7573 1.7180 -0.1223 1.3611 -2.7225 0.6679 -0.3368 0.7777 0.5140 0.9088 -1.0004 -0.4358 -0.1875 -1.7967 -0.3285 -0.3533 62
2.9122 -3.2129 0.8002 0.4878 2.5720 0.1172 -0.4698 -1.1430 -0.3355 1.2254 2.1786 1.3106 -1.2091 -0.2544 3.1026 -1.3099 0.6788 0.5796 0.0457 -2.9293 -0.1444 0.5307 -0.3310 1.6292 -0.1120 0.8091 0.1744 1.1189 0.6118 2.1824 0.3776 -0.5287 -1.7846 0.2201 1.7180 2.6488 -0.1570 1.7964 -3.4060 0.7505 -0.3578 0.8620 0.6071 1.2359 -1.3803 -0.5003 -0.2444 -2.3370 -0.3344 -0.4504 26
-0.1801 0.1292 -0.1187 -0.0714 -0.1274 -0.0287 0.0369 0.0128 -0.0014 -0.1233 -0.1948 -0.0719 0.0626 0.0347 -0.2090 0.1348 -0.0638 -0.0743 0.0012 0.1415 0.0133 -0.0149 -0.0671 -0.0964 -0.0071 0.0051 -0.0242 -0.0792 -0.0080 -0.1306 -0.0242 0.0694 0.0535 0.0425 -0.1223 -0.1570 0.5395 -0.1109 0.2121 -0.0523 0.0754 -0.0732 -0.0016 -0.1084 -0.0139 0.0619 0.0083 0.1050 0.0550 0.0494 63
2.3788 -2.7918 0.6768 0.4170 2.1856 0.0973 -0.4200 -0.9203 -0.3399 0.9135 1.8416 1.1116 -1.0602 -0.2496 2.5559 -1.1112 0.4828 0.4918 0.0755 -2.4247 -0.0872 0.3910 -0.2729 1.4246 -0.1159 0.6314 0.2166 0.9416 0.5502 1.8887 0.3747 -0.4097 -1.4723 0.1589 1.3611 1.7964 -0.1109 2.0852 -2.8621 0.7567 -0.3106 0.7684 0.4666 1.0674 -1.1421 -0.4733 -0.2706 -1.9395 -0.2274 -0.3053 37
-4.6882 5.2974 -1.3484 -0.8844 -4.1457 -0.2422 0.8134 1.8623 0.5632 -2.0165 -3.5767 -2.1870 2.0135 0.5846 -4.9978 1.9769 -1.0971 -0.9623 -0.1467 4.7593 0.1889 -0.8916 0.5384 -2.7942 0.2040 -1.3638 -0.4319 -1.8905 -1.0793 -3.4013 -0.6923 0.8696 2.8168 -0.3378 -2.7225 -3.4060 0.2121 -2.8621 5.9759 -1.2973 0.6040 -1.4004 -1.0832 -2.0083 2.1262 0.7904 0.4162 3.7221 0.4748 0.6679 54
1.0144 -1.2834 0.2300 0.2237 1.0017 -0.0295 -0.2177 -0.4883 -0.1197 0.5499 0.8156 0.5297 -0.4964 -0.1960 1.1663 -0.4573 0.2505 0.2336 0.0139 -1.1034 -0.0596 0.1849 -0.0949 0.6636 -0.0653 0.2927 0.1487 0.4371 0.2500 0.8479 0.1508 -0.2551 -0.5935 0.0146 0.6679 0.7505 -0.0523 0.7567 -1.2973 0.8627 -0.2054 0.2753 0.2019 0.5369 -0.5214 -0.2155 -0.2072 -0.8814 -0.0946 -0.1849 73
-0.6039 0.5630 -0.1818 -0.1125 -0.4430 -0.0412 0.0992 0.2389 0.0333 -0.2261 -0.3812 -0.2500 0.2353 0.0947 -0.6121 0.1157 -0.1408 -0.0882 -0.0109 0.5131 0.0565 -0.1016 0.0839 -0.2588 -0.0195 -0.1847 -0.0726 -0.2114 -0.1654 -0.4523 -0.1812 0.0694 0.3610 -0.0082 -0.3368 -0.3578 0.0754 -0.3106 0.6040 -0.2054 0.5734 -0.1779 -0.1480 -0.3088 0.2475 0.0661 0.0651 0.4767 0.0982 0.0959 61
1.2054 -1.3818 0.3868 0.2486 1.0523 0.0373 -0.2070 -0.5634 -0.1706 0.4315 0.8925 0.5574 -0.4945 -0.1743 1.2878 -0.5270 0.3017 0.3035 0.0676 -1.2266 -0.0610 0.2388 -0.1465 0.6827 -0.0332 0.3346 0.1063 0.4700 0.2566 0.9010 0.1507 -0.2764 -0.7421 -0.0365 0.7777 0.8620 -0.0732 0.7684 -1.4004 0.2753 -0.1779 0.8461 0.2169 0.4736 -0.5104 -0.2225 -0.0518 -0.9432 -0.1173 -0.1711 36
0.8736 -0.9346 0.1689 0.1561 0.6535 0.0315 -0.1330 -0.3256 -0.1850 0.4177 0.6633 0.4051 -0.3991 -0.1177 0.8739 -0.4353 0.1375 0.1861 0.0200 -0.8442 -0.0429 0.0980 -0.1097 0.4554 -0.0137 0.2050 0.0619 0.2954 0.2055 0.6562 0.1314 -0.0905 -0.4724 0.0957 0.5140 0.6071 -0.0016 0.4666 -1.0832 0.2019 -0.1480 0.2169 0.5762 0.3793 -0.3777 -0.1099 -0.0459 -0.6614 -0.0662 -0.1394 8
1.7398 -1.9858 0.4837 0.3472 1.5415 0.0984 -0.2670 -0.6978 -0.2391 0.7414 1.2884 0.8233 -0.8193 -0.2404 1.8602 -0.7637 0.4008 0.4271 0.0147 -1.7190 -0.1673 0.3006 -0.1883 0.9998 -0.0335 0.5508 0.1750 0.6336 0.3829 1.3738 0.2037 -0.3565 -1.1204 0.0583 0.9088 1.2359 -0.1084 1.0674 -2.0083 0.5369 -0.3088 0.4736 0.3793 1.2784 -0.8044 -0.3298 -0.1177 -1.4455 -0.1764 -0.2103 50
-1.8139 2.0120 -0.4645 -0.3703 -1.5980 -0.1038 0.3147 0.6856 0.2056 -0.7338 -1.4071 -0.8588 0.8328 0.2068 -1.9258 0.7695 -0.4232 -0.3692 -0.0310 1.7676 0.0779 -0.3008 0.2386 -1.0123 0.0409 -0.4394 -0.2028 -0.7384 -0.4214 -1.3290 -0.1861 0.3362 1.0324 -0.1264 -1.0004 -1.3803 -0.0139 -1.1421 2.1262 -0.5214 0.2475 -0.5104 -0.3777 -0.8044 1.2020 0.2898 0.1765 1.3846 0.2454 0.1735 25
-0.6754 0.7924 -0.2751 -0.0559 -0.6920 -0.0910 0.1318 0.3184 0.0961 -0.2253 -0.5335 -0.3423 0.2973 0.0174 -0.7036 0.3024 -0.2308 -0.1089 -0.0005 0.6289 -0.0036 -0.1590 0.0459 -0.4149 0.0102 -0.1506 -0.1677 -0.2259 -0.1378 -0.5080 -0.1466 0.1081 0.4550 -0.0559 -0.4358 -0.5003 0.0619 -0.4733 0.7904 -0.2155 0.0661 -0.2225 -0.1099 -0.3298 0.2898 0.6768 0.0608 0.5600 0.0428 0.0618 0
-0.3624 0.3411 -0.0827 -0.1356 -0.2685 -0.0058 0.0575 0.0851 0.0245 -0.1200 -0.2591 -0.1682 0.1547 -0.0014 -0.3510 0.1594 -0.1915 -0.1700 -0.0351 0.2217 -0.0132 0.0104 0.0971 -0.2238 0.0141 -0.1622 -0.0313 -0.1287 -0.0595 -0.2465 -0.0753 0.0678 0.2151 0.0099 -0.1875 -0.2444 0.0083 -0.2706 0.4162 -0.2072 0.0651 -0.0518 -0.0459 -0.1177 0.1765 0.0608 0.5918 0.2148 0.0259 0.0643 64
-3.1253 3.5546 -0.9572 -0.6167 -2.8187 -0.1767 0.5627 1.2199 0.3788 -1.4226 -2.4365 -1.4821 1.3701 0.3707 -3.3412 1.3772 -0.6789 -0.6438 -0.1509 3.2451 0.1143 -0.6025 0.4016 -1.9271 0.1923 -0.9206 -0.3501 -1.1986 -0.6626 -2.3834 -0.5261 0.5495 1.8968 -0.2153 -1.7967 -2.3370 0.1050 -1.9395 3.7221 -0.8814 0.4767 -0.9432 -0.6614 -1.4455 1.3846 0.5600 0.2148 3.0789 0.3048 0.4408 25
-0.5147 0.4998 -0.1690 -0.1647 -0.4301 0.0429 0.0802 0.2287 -0.0024 -0.2416 -0.3730 -0.2837 0.2007 -0.0210 -0.4694 0.2173 -0.1208 -0.1551 -0.0191 0.4565 -0.0194 -0.0853 -0.0077 -0.2503 -0.0476 -0.1723 0.0216 -0.1733 -0.1150 -0.3478 -0.0820 0.0963 0.2890 0.0433 -0.3285 -0.3344 0.0550 -0.2274 0.4748 -0.0946 0.0982 -0.1173 -0.0662 -0.1764 0.2454 0.0428 0.0259 0.3048 0.6097 0.0532 31
-0.6031 0.5850 -0.1316 -0.0935 -0.4861 -0.0993 0.0384 0.1844 0.0925 -0.2243 -0.4438 -0.2979 0.2452 0.1392 -0.5876 0.1947 -0.1478 -0.1630 -0.0120 0.6006 -0.0071 -0.1028 0.0481 -0.3470 -0.0213 -0.1603 -0.0780 -0.2291 -0.1880 -0.4556 -0.0252 0.1737 0.2856 0.0105 -0.3533 -0.4504 0.0494 -0.3053 0.6679 -0.1849 0.0959 -0.1711 -0.1394 -0.2103 0.1735 0.0618 0.0643 0.4408 0.0532 0.5904 42
