10 10
1.0547 0.6647 1.5131 -0.7968 0.5268 0.2999 -0.0321 -0.6594 0.9899 -0.7635 16
0.6647 1.3342 1.7486 -0.8659 0.8028 0.2936 -0.2268 -0.8155 1.0835 -0.9081 37
1.5131 1.7486 4.4729 -1.7690 1.4526 0.6221 -0.4988 -1.2877 2.6582 -2.0379 25
-0.7968 -0.8659 -1.7690 1.3121 -0.7404 -0.3128 0.1584 0.5353 -1.0745 0.8004 67
0.5268 0.8028 1.4526 -0.7404 1.0976 0.2464 -0.1957 -0.5840 0.9220 -0.8122 16
0.2999 0.2936 0.6221 -0.3128 0.2464 0.5955 -0.1018 -0.2389 0.3590 -0.4115 30
-0.0321 -0.2268 -0.4988 0.1584 -0.1957 -0.1018 0.7398 0.0681 -0.2828 0.0604 36
-0.6594 -0.8155 -1.2877 0.5353 -0.5840 -0.2389 0.0681 1.1328 -0.8659 0.5581 95
0.9899 1.0835 2.6582 -1.0745 0.9220 0.3590 -0.2828 -0.8659 2.2313 -1.3132 32
-0.7635 -0.9081 -2.0379 0.8004 -0.8122 -0.4115 0.0604 0.5581 -1.3132 1.4769 70
